GIS
1
0.0
2
NONENTAILMENT
ENTAILMENT
1
10 0 1
10
BagOfLemmasScoring_2
BagOfWordsScoring_0
BagOfWordsScoring_1
BagOfWordsScoring_2
BagOfWordsScoring_3
BagOfWordsScoring_4
BagOfWordsScoring_5
BagOfWordsScoring_6
BagOfLemmasScoring_0
BagOfLemmasScoring_1
-0.9255756640495306
0.6504919681770869
-2.0838115310509417
1.5128989147622671
0.06597733168509903
-0.04098453005478672
3.279618114935657
-2.0418616609781797
1.7663098624134956
-1.436602733611568
1.2721304960955064
-1.5116277926817725
1.601348509267765
-1.3871038530028739
1.4573298519864968
-1.2899888442175318
-0.8962392367424842
0.6943922779986219
-0.6304747235510445
0.5323717402084515
