GIS
1
0.0
2
NONENTAILMENT
ENTAILMENT
2
3
50 0 1
53
BagOfWordsScoring_4
BagOfWordsScoring_5
BagOfWordsScoring_6
BagOfLemmasScoring_2
BagOfDepsPosScoring_10
BagOfDepsPosScoring_11
BagOfLemmasScoring_0
BagOfLemmasScoring_1
BagOfDepsScoring_6
BagOfDepsScoring_5
BagOfDepsScoring_4
BagOfDepsScoring_3
TreeSkeletonScoring_2
BagOfDepsScoring_9
TreeSkeletonScoring_1
BagOfDepsScoring_8
TreeSkeletonScoring_0
BagOfDepsScoring_7
TreeSkeletonScoring_6
TreeSkeletonScoring_5
TreeSkeletonScoring_4
TreeSkeletonScoring_3
BagOfDepsScoring_10
BagOfDepsScoring_11
TreeSkeletonScoring_9
TreeSkeletonScoring_8
TreeSkeletonScoring_7
BagOfDepsScoring_0
BagOfDepsScoring_1
BagOfDepsScoring_2
BagOfDepsPosScoring_9
BagOfDepsPosScoring_7
BagOfDepsPosScoring_8
BagOfLexesPosScoring_2
BagOfDepsPosScoring_5
BagOfDepsPosScoring_6
BagOfLexesPosScoring_0
BagOfDepsPosScoring_3
BagOfLexesPosScoring_1
BagOfDepsPosScoring_4
BagOfDepsPosScoring_1
BagOfDepsPosScoring_2
BagOfDepsPosScoring_0
BagOfWordsScoring_0
BagOfWordsScoring_1
TreeSkeletonScoring_12
BagOfWordsScoring_2
TreeSkeletonScoring_13
BagOfWordsScoring_3
TreeSkeletonScoring_14
TreeSkeletonScoring_15
TreeSkeletonScoring_10
TreeSkeletonScoring_11
-2.7868874641050216
1.0000563419254407
-5.117142250231373
0.9659522222169132
-6.287807063903241
0.7977627133468617
-1.396919745682969
0.8460604661633324
-1.1141746525419018
0.6145631474390916
1.3024821393967405
-0.762988466853475
-0.25585828360675067
0.08353799098554548
-0.12359063687187448
0.05155605378676471
-0.9831591473275157
0.32291174510551274
-0.47732800029720185
0.11828377048416325
-1.6301091970429713
0.2952603496994364
-0.5103812886737767
0.11736729963700182
-6.83485463988895
2.4052293618368408
-0.7364884013551873
0.18816650845282126
0.2742979590489174
-0.14335102782256165
2.4620549439133774
-0.3959531354217466
6.891278109055006
-1.599275845931384
-0.5050012450992791
0.11110204785151248
0.901841717185886
-0.19559416759670784
5.886585234740262
-1.2347878253361555
-1.4551312310197415
0.23715918655916207
-0.25585828360675067
0.08353799098554548
-0.12359063687187448
0.05155605378676471
-0.9831591473275157
0.32291174510551274
-0.5050012450992791
0.11110204785151248
6.891278109055006
-1.599275845931384
2.4620549439133774
-0.3959531354217466
-0.7018350385785922
0.17340873518511993
2.3189668221405455
-1.4123752260888
1.4823655625250245
-0.6212617700746214
-0.49811210786276494
0.2944419697828649
-0.7835501745278941
0.2565954078955622
-0.6242754641508388
0.42729046070133514
0.3218328858852635
-0.18611650847059755
0.5905645645608498
-0.26425087979016637
0.8703114396731235
-0.5162510326594385
1.047497814868393
-0.43762281550195875
-4.343280080438688
0.85700483460243
-3.0634316737591845
0.4516721633433384
0.8820986058631021
-0.16144949206098133
-0.36064216747574773
0.18751172209087238
-2.0525410219229574
0.9589710011040217
-6.83485463988895
2.4052293618368408
-7.615964083806881
2.1068731069855984
-1.6301091970429713
0.2952603496994364
0.6824500951227125
-0.6275999138997309
5.886585234740262
-1.2347878253361555
-1.4551312310197415
0.23715918655916207
1.3024821393967405
-0.762988466853475
0.2742979590489174
-0.14335102782256165
