GIS
1
0.0
2
NONENTAILMENT
ENTAILMENT
1
10 0 1
10
BagOfLemmasScoring_2
BagOfWordsScoring_0
BagOfWordsScoring_1
BagOfWordsScoring_2
BagOfWordsScoring_3
BagOfWordsScoring_4
BagOfWordsScoring_5
BagOfWordsScoring_6
BagOfLemmasScoring_0
BagOfLemmasScoring_1
-0.2254577683248062
0.17605586783155464
-1.9721594848367825
1.4945450080245697
-0.4035287408294953
0.32807302126070714
2.1979711891774567
-1.3286992142415472
1.8812894879699689
-1.6565148731851707
1.3853319841560596
-1.7763813083918685
1.6895365278155094
-1.4928247327214017
1.5562964639666876
-1.4029771678674683
-1.0355107155083967
0.8329745235849976
-0.26628589688667076
0.24149263548661892
