GIS
1
0.0
2
NONENTAILMENT
ENTAILMENT
1
10 0 1
10
BagOfLemmasScoring_2
BagOfWordsScoring_0
BagOfWordsScoring_1
BagOfWordsScoring_2
BagOfWordsScoring_3
BagOfWordsScoring_4
BagOfWordsScoring_5
BagOfWordsScoring_6
BagOfLemmasScoring_0
BagOfLemmasScoring_1
-0.2990781476136805
0.221139033137882
-1.5267486666250103
1.115149687540294
-0.0046699713500356135
0.012953219322695985
1.0565451640740182
-0.5846152971265375
1.9078971966314846
-1.5462507442546272
1.3701145028485018
-1.655444809773618
1.6748419858956396
-1.4189059987074466
1.5891799366681447
-1.3459527642902418
-1.247173573832564
0.9404503964298099
-0.4532212959743516
0.3628411307291339
