GIS
1
0.0
2
ENTAILMENT
NONENTAILMENT
1
12 0 1
12
BagOfLexesPosScoring_0
BagOfLemmasScoring_2
BagOfLexesPosScoring_1
BagOfWordsScoring_0
BagOfWordsScoring_1
BagOfWordsScoring_2
BagOfWordsScoring_3
BagOfWordsScoring_4
BagOfWordsScoring_5
BagOfWordsScoring_6
BagOfLemmasScoring_0
BagOfLemmasScoring_1
0.6797341765374053
-0.8820156392392478
0.03955924021330339
-0.03929137570728883
2.7977878951108828
-3.70762427064129
1.4513911013466254
-2.017862819626848
0.3797148014760953
-0.4754396970257312
-2.216882057209074
3.537300457819208
-1.7567487762263854
2.1650847146043297
-1.8596943235799623
1.570283633806216
-1.664942978016852
1.9282545195434058
-1.607659844033339
1.819804208991323
-2.462387600126532
3.2654786407903007
0.9216722181553295
-1.102370736030608
